digraph Tree {
node [shape=box, style="filled", color="black"] ;
graph [ranksep=equally, splines=polyline] ;
0 [label="Cell_Size <= 2.5\nentropy = 0.928\nsamples = 524\nvalue = [344, 180]\nclass = NAO", fillcolor="#f3c3a1"] ;
1 [label="Bare_Nuclei <= 2.5\nentropy = 0.184\nsamples = 321\nvalue = [312, 9]\nclass = NAO", fillcolor="#e6853f"] ;
0 -> 1 [labeldistance=2.5, labelangle=45, headlabel="True"] ;
2 [label="entropy = 0.0\nsamples = 288\nvalue = [288, 0]\nclass = NAO", fillcolor="#e58139"] ;
1 -> 2 ;
3 [label="Clump_Thickness <= 3.5\nentropy = 0.845\nsamples = 33\nvalue = [24, 9]\nclass = NAO", fillcolor="#efb083"] ;
1 -> 3 ;
4 [label="entropy = 0.0\nsamples = 20\nvalue = [20, 0]\nclass = NAO", fillcolor="#e58139"] ;
3 -> 4 ;
5 [label="Cell_Shape <= 2.5\nentropy = 0.89\nsamples = 13\nvalue = [4, 9]\nclass = SIM", fillcolor="#91c9f1"] ;
3 -> 5 ;
6 [label="Bare_Nuclei <= 5.5\nentropy = 0.918\nsamples = 6\nvalue = [4, 2]\nclass = NAO", fillcolor="#f2c09c"] ;
5 -> 6 ;
7 [label="entropy = 0.0\nsamples = 4\nvalue = [4, 0]\nclass = NAO", fillcolor="#e58139"] ;
6 -> 7 ;
8 [label="entropy = 0.0\nsamples = 2\nvalue = [0, 2]\nclass = SIM", fillcolor="#399de5"] ;
6 -> 8 ;
9 [label="entropy = 0.0\nsamples = 7\nvalue = [0, 7]\nclass = SIM", fillcolor="#399de5"] ;
5 -> 9 ;
10 [label="Bare_Nuclei <= 2.5\nentropy = 0.629\nsamples = 203\nvalue = [32, 171]\nclass = SIM", fillcolor="#5eafea"] ;
0 -> 10 [labeldistance=2.5, labelangle=-45, headlabel="False"] ;
11 [label="Cell_Size <= 3.5\nentropy = 0.996\nsamples = 39\nvalue = [21, 18]\nclass = NAO", fillcolor="#fbede3"] ;
10 -> 11 ;
12 [label="Normal_Nucleoli <= 8.5\nentropy = 0.31\nsamples = 18\nvalue = [17, 1]\nclass = NAO", fillcolor="#e78845"] ;
11 -> 12 ;
13 [label="entropy = 0.0\nsamples = 17\nvalue = [17, 0]\nclass = NAO", fillcolor="#e58139"] ;
12 -> 13 ;
14 [label="entropy = 0.0\nsamples = 1\nvalue = [0, 1]\nclass = SIM", fillcolor="#399de5"] ;
12 -> 14 ;
15 [label="Bland_Chromatin <= 4.5\nentropy = 0.702\nsamples = 21\nvalue = [4, 17]\nclass = SIM", fillcolor="#68b4eb"] ;
11 -> 15 ;
16 [label="Clump_Thickness <= 8.5\nentropy = 0.971\nsamples = 10\nvalue = [4, 6]\nclass = SIM", fillcolor="#bddef6"] ;
15 -> 16 ;
17 [label="Marginal_Adhesion <= 3.5\nentropy = 0.985\nsamples = 7\nvalue = [4, 3]\nclass = NAO", fillcolor="#f8e0ce"] ;
16 -> 17 ;
18 [label="entropy = 0.0\nsamples = 3\nvalue = [3, 0]\nclass = NAO", fillcolor="#e58139"] ;
17 -> 18 ;
19 [label="Normal_Nucleoli <= 6.0\nentropy = 0.811\nsamples = 4\nvalue = [1, 3]\nclass = SIM", fillcolor="#7bbeee"] ;
17 -> 19 ;
20 [label="entropy = 0.0\nsamples = 3\nvalue = [0, 3]\nclass = SIM", fillcolor="#399de5"] ;
19 -> 20 ;
21 [label="entropy = 0.0\nsamples = 1\nvalue = [1, 0]\nclass = NAO", fillcolor="#e58139"] ;
19 -> 21 ;
22 [label="entropy = 0.0\nsamples = 3\nvalue = [0, 3]\nclass = SIM", fillcolor="#399de5"] ;
16 -> 22 ;
23 [label="entropy = 0.0\nsamples = 11\nvalue = [0, 11]\nclass = SIM", fillcolor="#399de5"] ;
15 -> 23 ;
24 [label="Clump_Thickness <= 6.5\nentropy = 0.355\nsamples = 164\nvalue = [11, 153]\nclass = SIM", fillcolor="#47a4e7"] ;
10 -> 24 ;
25 [label="Bland_Chromatin <= 3.5\nentropy = 0.644\nsamples = 67\nvalue = [11, 56]\nclass = SIM", fillcolor="#60b0ea"] ;
24 -> 25 ;
26 [label="Marginal_Adhesion <= 2.0\nentropy = 0.994\nsamples = 11\nvalue = [6, 5]\nclass = NAO", fillcolor="#fbeade"] ;
25 -> 26 ;
27 [label="entropy = 0.0\nsamples = 4\nvalue = [4, 0]\nclass = NAO", fillcolor="#e58139"] ;
26 -> 27 ;
28 [label="Cell_Shape <= 4.5\nentropy = 0.863\nsamples = 7\nvalue = [2, 5]\nclass = SIM", fillcolor="#88c4ef"] ;
26 -> 28 ;
29 [label="Marginal_Adhesion <= 4.5\nentropy = 1.0\nsamples = 4\nvalue = [2, 2]\nclass = NAO", fillcolor="#ffffff"] ;
28 -> 29 ;
30 [label="entropy = 0.0\nsamples = 2\nvalue = [0, 2]\nclass = SIM", fillcolor="#399de5"] ;
29 -> 30 ;
31 [label="entropy = 0.0\nsamples = 2\nvalue = [2, 0]\nclass = NAO", fillcolor="#e58139"] ;
29 -> 31 ;
32 [label="entropy = 0.0\nsamples = 3\nvalue = [0, 3]\nclass = SIM", fillcolor="#399de5"] ;
28 -> 32 ;
33 [label="Cell_Shape <= 7.5\nentropy = 0.434\nsamples = 56\nvalue = [5, 51]\nclass = SIM", fillcolor="#4ca7e8"] ;
25 -> 33 ;
34 [label="Bare_Nuclei <= 5.5\nentropy = 0.592\nsamples = 35\nvalue = [5, 30]\nclass = SIM", fillcolor="#5aade9"] ;
33 -> 34 ;
35 [label="Epithelial_Cell_Size <= 3.5\nentropy = 0.985\nsamples = 7\nvalue = [3, 4]\nclass = SIM", fillcolor="#cee6f8"] ;
34 -> 35 ;
36 [label="entropy = 0.0\nsamples = 3\nvalue = [0, 3]\nclass = SIM", fillcolor="#399de5"] ;
35 -> 36 ;
37 [label="Mitoses <= 5.5\nentropy = 0.811\nsamples = 4\nvalue = [3, 1]\nclass = NAO", fillcolor="#eeab7b"] ;
35 -> 37 ;
38 [label="entropy = 0.0\nsamples = 3\nvalue = [3, 0]\nclass = NAO", fillcolor="#e58139"] ;
37 -> 38 ;
39 [label="entropy = 0.0\nsamples = 1\nvalue = [0, 1]\nclass = SIM", fillcolor="#399de5"] ;
37 -> 39 ;
40 [label="Clump_Thickness <= 5.5\nentropy = 0.371\nsamples = 28\nvalue = [2, 26]\nclass = SIM", fillcolor="#48a5e7"] ;
34 -> 40 ;
41 [label="entropy = 0.0\nsamples = 20\nvalue = [0, 20]\nclass = SIM", fillcolor="#399de5"] ;
40 -> 41 ;
42 [label="Epithelial_Cell_Size <= 4.5\nentropy = 0.811\nsamples = 8\nvalue = [2, 6]\nclass = SIM", fillcolor="#7bbeee"] ;
40 -> 42 ;
43 [label="entropy = 0.0\nsamples = 4\nvalue = [0, 4]\nclass = SIM", fillcolor="#399de5"] ;
42 -> 43 ;
44 [label="Bland_Chromatin <= 7.5\nentropy = 1.0\nsamples = 4\nvalue = [2, 2]\nclass = NAO", fillcolor="#ffffff"] ;
42 -> 44 ;
45 [label="entropy = 0.0\nsamples = 2\nvalue = [2, 0]\nclass = NAO", fillcolor="#e58139"] ;
44 -> 45 ;
46 [label="entropy = 0.0\nsamples = 2\nvalue = [0, 2]\nclass = SIM", fillcolor="#399de5"] ;
44 -> 46 ;
47 [label="entropy = 0.0\nsamples = 21\nvalue = [0, 21]\nclass = SIM", fillcolor="#399de5"] ;
33 -> 47 ;
48 [label="entropy = 0.0\nsamples = 97\nvalue = [0, 97]\nclass = SIM", fillcolor="#399de5"] ;
24 -> 48 ;
{rank=same ; 0} ;
{rank=same ; 1; 10} ;
{rank=same ; 3; 11; 24} ;
{rank=same ; 5; 12; 15; 25} ;
{rank=same ; 6; 16; 26; 33} ;
{rank=same ; 17; 28; 34} ;
{rank=same ; 19; 29; 35; 40} ;
{rank=same ; 37; 42} ;
{rank=same ; 44} ;
{rank=same ; 2; 4; 7; 8; 9; 13; 14; 18; 20; 21; 22; 23; 27; 30; 31; 32; 36; 38; 39; 41; 43; 45; 46; 47; 48} ;
}